tree
version=v3
num_class=3
num_tree_per_iteration=3
label_index=0
max_feature_idx=3
objective=multiclass num_class:3
feature_names=Column_0 Column_1 Column_2 Column_3
feature_infos=[4.2999999999999998:7.7000000000000002] [2:4.4000000000000004] [1:6.7000000000000002] [0.10000000000000001:2.5]
tree_sizes=549 526 543 653 540 648 649 541 648 651 524 655 649 544 648 650 529 648 654 543 651 655 529 655 657 544 650 656 527 654

Tree=0
num_leaves=4
num_cat=0
split_feature=2 2 0
split_gain=77.0732 0.0768293 3.55271e-15
threshold=3.1500000000000004 1.4500000000000002 6.1500000000000012
decision_type=2 2 2
left_child=1 -1 -2
right_child=2 -3 -4
leaf_value=-0.89861228866810972 -1.1986122886681096 -0.91361228866810984 -1.1986122886681099
leaf_weight=7.0000002086162549 12.333333700895311 6.6666668653488159 14.000000417232512
leaf_count=21 37 20 42
internal_value=-1.09861 -0.905929 -1.19861
internal_weight=0 13.6667 26.3333
internal_count=120 41 79
is_linear=0
shrinkage=1


Tree=1
num_leaves=4
num_cat=0
split_feature=2 3 3
split_gain=19.2405 39.74 0.47422
threshold=1.8 1.6500000000000001 1.3500000000000003
decision_type=2 2 2
left_child=-1 2 -2
right_child=1 -3 -4
leaf_value=-1.1751854953964171 -0.90250874610487153 -1.1591645348034945 -0.93807527862116002
leaf_weight=12.821042180061339 8.4348961710929888 12.483646333217619 6.7479169368743888
leaf_count=38 25 37 20
internal_value=-1.07392 -1.02699 -0.918316
internal_weight=0 27.6665 15.1828
internal_count=120 82 45
is_linear=0
shrinkage=1


Tree=2
num_leaves=4
num_cat=0
split_feature=2 2 1
split_gain=63.5727 2.03185 0.105245
threshold=4.7500000000000009 5.3500000000000005 2.8500000000000001
decision_type=2 2 2
left_child=2 -2 -1
right_child=1 -3 -4
leaf_value=-1.2082244016838413 -0.99477529393302389 -0.91880188269968199 -1.2226955276330493
leaf_weight=6.910312324762347 6.5812498331069929 7.5684373080730438 18.427499532699585
leaf_count=21 20 23 56
internal_value=-1.12393 -0.954138 -1.21875
internal_weight=0 14.1497 25.3378
internal_count=120 43 77
is_linear=0
shrinkage=1


Tree=3
num_leaves=5
num_cat=0
split_feature=2 2 2 3
split_gain=60.5751 0.0378124 0.000406812 8.55145e-05
threshold=3.1500000000000004 1.4500000000000002 5.3500000000000005 1.3500000000000003
decision_type=2 2 2 2
left_child=1 -1 3 -2
right_child=2 -3 -4 -5
leaf_value=0.16547129426106011 -0.095264996547141739 0.15533613818941711 -0.094646589669455383 -0.095715268695883773
leaf_weight=7.5779385268688184 6.9325828552246156 7.1582724153995514 7.1810509562492362 10.770962774753569
leaf_count=21 22 20 23 34
internal_value=0 0.160548 -0.0952814 -0.0955389
internal_weight=0 14.7362 24.8846 17.7035
internal_count=120 41 79 56
is_linear=0
shrinkage=0.1


Tree=4
num_leaves=4
num_cat=0
split_feature=3 3 3
split_gain=16.3592 31.3987 0.363053
threshold=0.45000000000000007 1.6500000000000001 1.3500000000000003
decision_type=2 2 2
left_child=-1 2 -2
right_child=1 -3 -4
leaf_value=-0.096649372349575158 0.14710833584677915 -0.080458272152291663 0.11681114834195463
leaf_weight=12.172648608684538 8.9308104515075737 11.951251983642576 7.0991638004779807
leaf_count=38 25 37 20
internal_value=0 0.0422241 0.133691
internal_weight=0 27.9812 16.03
internal_count=120 82 45
is_linear=0
shrinkage=0.1


Tree=5
num_leaves=5
num_cat=0
split_feature=2 2 1 0
split_gain=50.3584 1.41436 0.100981 0.000168887
threshold=4.7500000000000009 5.3500000000000005 2.8500000000000001 5.2500000000000009
decision_type=2 2 2 2
left_child=2 -2 -1 -4
right_child=1 -3 3 -5
leaf_value=-0.079723941033303977 0.10935123539403731 0.17058339440188841 -0.093987495949835242 -0.094614098068468822
leaf_weight=6.5796661972999599 6.9771580398082724 8.2123437225818616 9.5834484100341815 7.8043439090251914
leaf_count=21 20 23 31 25
internal_value=0 0.142457 -0.0902758 -0.0942687
internal_weight=0 15.1895 23.9675 17.3878
internal_count=120 43 77 56
is_linear=0
shrinkage=0.1


Tree=6
num_leaves=5
num_cat=0
split_feature=2 2 2 3
split_gain=48.9412 0.0239836 0.00104908 0.000337284
threshold=3.1500000000000004 1.4500000000000002 5.3500000000000005 1.3500000000000003
decision_type=2 2 2 2
left_child=1 -1 3 -2
right_child=2 -3 -4 -5
leaf_value=0.1428101645456516 -0.091255001465293639 0.13487646754070523 -0.090333370300720042 -0.09217733677023382
leaf_weight=7.8403062224388105 6.4958072900772157 7.4130154550075531 6.6619926393032065 10.175433576107023
leaf_count=21 22 20 23 34
internal_value=0 0.138954 -0.0913941 -0.091818
internal_weight=0 15.2533 23.3332 16.6712
internal_count=120 41 79 56
is_linear=0
shrinkage=0.1


Tree=7
num_leaves=4
num_cat=0
split_feature=3 2 3
split_gain=13.7656 25.2832 0.283158
threshold=0.45000000000000007 4.9500000000000011 1.3500000000000003
decision_type=2 2 2
left_child=-1 2 -2
right_child=1 -3 -4
leaf_value=-0.092278744496800125 0.12804815118452387 -0.077769539556524866 0.10182117872713102
leaf_weight=11.402778625488279 9.2173573672771507 11.238456130027769 7.4387200474739066
leaf_count=38 25 36 21
internal_value=0 0.038132 0.116335
internal_weight=0 27.8945 16.6561
internal_count=120 82 46
is_linear=0
shrinkage=0.1


Tree=8
num_leaves=5
num_cat=0
split_feature=2 2 1 0
split_gain=40.7814 1.1181 0.0997066 0.000399113
threshold=4.7500000000000009 5.3500000000000005 2.8500000000000001 5.2500000000000009
decision_type=2 2 2 2
left_child=2 -2 -1 -4
right_child=1 -3 3 -5
leaf_value=-0.075599575016936982 0.094445265751220323 0.14789088248284873 -0.090030082991927496 -0.091025132313307278
leaf_weight=6.2258059978485134 7.2310867905616751 8.5339154899120313 8.9305348396301287 7.3472398221492758
leaf_count=21 20 23 31 25
internal_value=0 0.123376 -0.0863626 -0.0904792
internal_weight=0 15.765 22.5036 16.2778
internal_count=120 43 77 56
is_linear=0
shrinkage=0.1


Tree=9
num_leaves=5
num_cat=0
split_feature=2 2 2 3
split_gain=40.2931 0.0178274 0.00122977 0.000466005
threshold=3.1500000000000004 1.4500000000000002 5.3500000000000005 1.3500000000000003
decision_type=2 2 2 2
left_child=1 -1 3 -2
right_child=2 -3 -4 -5
leaf_value=0.12694132043030953 -0.087878133095179112 0.12011807250775741 -0.08689599376018009 -0.089000329588613036
leaf_weight=7.8549873530864698 6.0425678491592434 7.4713317453861237 6.1551977992057791 9.5469287335872632
leaf_count=21 22 20 23 34
internal_value=0 0.123615 -0.0880928 -0.0885654
internal_weight=0 15.3263 21.7447 15.5895
internal_count=120 41 79 56
is_linear=0
shrinkage=0.1


Tree=10
num_leaves=4
num_cat=0
split_feature=2 3 3
split_gain=11.8273 21.247 0.167567
threshold=1.8 1.6500000000000001 1.3500000000000003
decision_type=2 2 2
left_child=-1 2 -2
right_child=1 -3 -4
leaf_value=-0.089029126320213758 0.11551625914941265 -0.07331588406836663 0.095254637411754772
leaf_weight=10.63785609602928 9.2339628338813835 10.886600792407988 7.3152196407318106
leaf_count=38 25 37 20
internal_value=0 0.0351847 0.10656
internal_weight=0 27.4358 16.5492
internal_count=120 82 45
is_linear=0
shrinkage=0.1


Tree=11
num_leaves=5
num_cat=0
split_feature=3 3 2 2
split_gain=33.4441 1.25295 0.000784535 2.21428e-05
threshold=1.6500000000000001 1.3500000000000003 3.1500000000000004 1.4500000000000002
decision_type=2 2 2 2
left_child=1 2 3 -1
right_child=-2 -3 -4 -5
leaf_value=-0.086871754039633708 0.12350954176250029 -0.034721926737180296 -0.088150766427193106 -0.08658682487750223
leaf_weight=5.6221238970756584 13.773322761058806 6.1990455687046042 6.0812078714370719 5.2973622977733612
leaf_count=21 37 20 22 20
internal_value=0 -0.0732074 -0.0872405 -0.0867335
internal_weight=0 23.1997 17.0007 10.9195
internal_count=120 83 63 41
is_linear=0
shrinkage=0.1


Tree=12
num_leaves=5
num_cat=0
split_feature=2 2 2 3
split_gain=33.5919 0.0154971 0.00103221 0.000390021
threshold=3.1500000000000004 1.4500000000000002 5.3500000000000005 1.3500000000000003
decision_type=2 2 2 2
left_child=1 -1 3 -2
right_child=2 -3 -4 -5
leaf_value=0.11528500820300039 -0.085062894963414543 0.10886934061760639 -0.084125341902322751 -0.086128908433818943
leaf_weight=7.6819360852241498 5.5932350754737881 7.3840000331401825 5.6702967733144751 8.882735073566435
leaf_count=21 22 20 23 34
internal_value=0 0.112141 -0.085269 -0.085717
internal_weight=0 15.0659 20.1463 14.476
internal_count=120 41 79 56
is_linear=0
shrinkage=0.1


Tree=13
num_leaves=4
num_cat=0
split_feature=3 2 0
split_gain=10.0654 17.5392 0.156578
threshold=0.45000000000000007 4.9500000000000011 5.7500000000000009
decision_type=2 2 2
left_child=-1 2 -2
right_child=1 -3 -4
leaf_value=-0.085925680742469479 0.085629833823521698 -0.071278230795575243 0.10507863273647383
leaf_weight=9.8206097483634931 7.9409072399139466 10.120122402906416 8.6470629274845106
leaf_count=38 22 36 24
internal_value=0 0.0324716 0.0957682
internal_weight=0 26.7081 16.588
internal_count=120 82 46
is_linear=0
shrinkage=0.1


Tree=14
num_leaves=5
num_cat=0
split_feature=2 2 1 0
split_gain=28.1125 0.88384 0.10588 0.00115575
threshold=4.7500000000000009 5.3500000000000005 2.8500000000000001 5.2500000000000009
decision_type=2 2 2 2
left_child=2 -2 -1 -4
right_child=1 -3 3 -5
leaf_value=-0.068384673911072599 0.073713402039366063 0.12102380330567825 -0.083938061999714181 -0.085757319757220576
leaf_weight=5.4766830205917385 7.3881061077117911 8.4823609590530378 7.5889488309621793 6.4683790802955627
leaf_count=21 20 23 31 25
internal_value=0 0.0989996 -0.0801798 -0.0847752
internal_weight=0 15.8705 19.534 14.0573
internal_count=120 43 77 56
is_linear=0
shrinkage=0.1


Tree=15
num_leaves=5
num_cat=0
split_feature=2 2 2 3
split_gain=28.2922 0.0153707 0.00109554 0.000336749
threshold=3.1500000000000004 1.4500000000000002 5.3500000000000005 1.3500000000000003
decision_type=2 2 2 2
left_child=1 -1 3 -2
right_child=2 -3 -4 -5
leaf_value=0.10647303095480264 -0.082751416757303076 0.099973717447858185 -0.08167107326803115 -0.08378110166080778
leaf_weight=7.373704791069029 5.1673026978969601 7.1839527785778046 5.171923652291297 8.2423815131187421
leaf_count=21 22 20 23 34
internal_value=0 0.103266 -0.0829075 -0.0833843
internal_weight=0 14.5577 18.5816 13.4097
internal_count=120 41 79 56
is_linear=0
shrinkage=0.1


Tree=16
num_leaves=4
num_cat=0
split_feature=2 3 3
split_gain=8.72348 14.7903 0.142796
threshold=1.8 1.6500000000000001 1.3500000000000003
decision_type=2 2 2
left_child=-1 2 -2
right_child=1 -3 -4
leaf_value=-0.083636707895137663 0.097891231966727776 -0.06692272642340745 0.078944194641748913
leaf_weight=9.0464378297328931 8.8442940413951927 9.7141665667295438 7.2289470732212058
leaf_count=38 25 37 20
internal_value=0 0.0304941 0.0893698
internal_weight=0 25.7874 16.0732
internal_count=120 82 45
is_linear=0
shrinkage=0.1


Tree=17
num_leaves=5
num_cat=0
split_feature=2 2 0 2
split_gain=23.4665 0.792587 0.113153 0.00138979
threshold=4.7500000000000009 5.3500000000000005 5.0500000000000007 3.6000000000000005
decision_type=2 2 2 2
left_child=2 -2 -1 -4
right_child=1 -3 3 -5
leaf_value=-0.06623540812855741 0.06622258823394099 0.11136290730810337 -0.081652006537899877 -0.083875179802748112
leaf_weight=5.9954750835895565 7.3795570135116568 8.2251154482364637 4.4747746586799604 7.5669786781072617
leaf_count=26 20 23 20 31
internal_value=0 0.0900157 -0.0774603 -0.083049
internal_weight=0 15.6047 18.0372 12.0418
internal_count=120 43 77 51
is_linear=0
shrinkage=0.1


Tree=18
num_leaves=5
num_cat=0
split_feature=2 2 2 3
split_gain=24.0947 0.0161932 0.00125892 0.000492197
threshold=3.1500000000000004 1.4500000000000002 5.3500000000000005 1.3500000000000003
decision_type=2 2 2 2
left_child=1 -1 3 -2
right_child=2 -3 -4 -5
leaf_value=0.099793729275604551 -0.080658838365431418 0.092966715863060406 -0.079535457218154082 -0.081955760963496979
leaf_weight=6.9852803647518176 4.7313185930252093 6.912384033203125 4.6757744401693335 7.6700338572263718
leaf_count=21 22 20 23 34
internal_value=0 0.0963981 -0.0809338 -0.081461
internal_weight=0 13.8977 17.0771 12.4014
internal_count=120 41 79 56
is_linear=0
shrinkage=0.1


Tree=19
num_leaves=4
num_cat=0
split_feature=3 2 3
split_gain=7.47294 12.3645 0.145598
threshold=0.45000000000000007 4.9500000000000011 1.3500000000000003
decision_type=2 2 2
left_child=-1 2 -2
right_child=1 -3 -4
leaf_value=-0.081378140140655045 0.090867638195998579 -0.065113082178991366 0.071558840364174134
leaf_weight=8.25313553214073 8.494821637868883 8.9756030291318876 7.2280724644660941
leaf_count=38 25 36 21
internal_value=0 0.0285324 0.0819911
internal_weight=0 24.6985 15.7229
internal_count=120 82 46
is_linear=0
shrinkage=0.1


Tree=20
num_leaves=5
num_cat=0
split_feature=2 2 1 3
split_gain=19.7158 0.775205 0.119824 0.000775329
threshold=4.7500000000000009 5.3500000000000005 2.8500000000000001 0.45000000000000007
decision_type=2 2 2 2
left_child=2 -2 -1 -4
right_child=1 -3 3 -5
leaf_value=-0.06161364340869252 0.059245043456775427 0.10449470460614892 -0.07982548831164174 -0.081515301424884584
leaf_weight=4.7400870025157991 7.3023816645145398 7.8624919950962067 7.6328813880681974 4.2144472151994705
leaf_count=21 20 23 37 19
internal_value=0 0.0827055 -0.0750505 -0.0804266
internal_weight=0 15.1649 16.5874 11.8473
internal_count=120 43 77 56
is_linear=0
shrinkage=0.1


Tree=21
num_leaves=5
num_cat=0
split_feature=2 2 2 3
split_gain=20.5923 0.0170977 0.00119449 0.000566677
threshold=3.1500000000000004 1.4500000000000002 5.3500000000000005 1.3500000000000003
decision_type=2 2 2 2
left_child=1 -1 3 -2
right_child=2 -3 -4 -5
leaf_value=0.094338747453698912 -0.078834623170893028 0.087116990217802392 -0.07777091930508151 -0.080288226351285186
leaf_weight=6.5292111933231372 4.3070472478866559 6.5842882692813873 4.2210287451744071 7.1077530980110168
leaf_count=21 22 20 23 34
internal_value=0 0.0907127 -0.0792082 -0.0797398
internal_weight=0 13.1135 15.6358 11.4148
internal_count=120 41 79 56
is_linear=0
shrinkage=0.1


Tree=22
num_leaves=4
num_cat=0
split_feature=2 3 3
split_gain=6.53373 10.7529 0.10512
threshold=1.8 1.6500000000000001 1.3500000000000003
decision_type=2 2 2
left_child=-1 2 -2
right_child=1 -3 -4
leaf_value=-0.079794359905135018 0.086291344817011159 -0.061769164617416841 0.069448898904165696
leaf_weight=7.5372884869575527 8.0610692203044909 8.6147818714380247 6.8587850928306571
leaf_count=38 25 37 20
internal_value=0 0.0271858 0.0785487
internal_weight=0 23.5346 14.9199
internal_count=120 82 45
is_linear=0
shrinkage=0.1


Tree=23
num_leaves=5
num_cat=0
split_feature=3 2 2 2
split_gain=16.9463 1.12557 0.000946138 4.89435e-07
threshold=1.6500000000000001 4.4500000000000011 3.1500000000000004 1.4500000000000002
decision_type=2 2 2 2
left_child=1 2 3 -1
right_child=-2 -3 -4 -5
leaf_value=-0.077989699651245456 0.089743659662405439 -0.021502036555643072 -0.079723773999852865 -0.077938899970063064
leaf_weight=3.9082888960838371 12.395986109971998 4.7225549221038809 5.1224506944417953 3.6846583187580109
leaf_count=21 37 17 25 20
internal_value=0 -0.0631903 -0.0786736 -0.077965
internal_weight=0 17.438 12.7154 7.59295
internal_count=120 83 66 41
is_linear=0
shrinkage=0.1


Tree=24
num_leaves=5
num_cat=0
split_feature=2 2 2 3
split_gain=17.6664 0.0187529 0.000932305 0.000497593
threshold=3.1500000000000004 1.4500000000000002 5.3500000000000005 1.3500000000000003
decision_type=2 2 2 2
left_child=1 -1 3 -2
right_child=2 -3 -4 -5
leaf_value=0.089937274872034012 -0.077285662893169876 0.082117142385965999 -0.076352270031219263 -0.078711811030539536
leaf_weight=6.0412284433841723 3.9109417647123319 6.2274950742721558 3.8210600912570944 6.5336131602525711
leaf_count=21 22 20 23 34
internal_value=0 0.0859678 -0.0776888 -0.0781778
internal_weight=0 12.2687 14.2656 10.4446
internal_count=120 41 79 56
is_linear=0
shrinkage=0.1


Tree=25
num_leaves=4
num_cat=0
split_feature=3 2 3
split_gain=5.64247 9.11861 0.661285
threshold=0.45000000000000007 5.0500000000000007 1.4500000000000002
decision_type=2 2 2
left_child=-1 2 -2
right_child=1 -3 -4
leaf_value=-0.078132121656920864 0.084660197504684384 -0.06994334964534947 0.042076832658916458
leaf_weight=6.8280793726444271 9.5511325895786303 6.8885677307844153 5.899175062775611
leaf_count=38 31 32 19
internal_value=0 0.0257403 0.0684012
internal_weight=0 22.3389 15.4503
internal_count=120 82 50
is_linear=0
shrinkage=0.1


Tree=26
num_leaves=5
num_cat=0
split_feature=2 2 1 3
split_gain=14.1779 0.779354 0.135177 0.000948492
threshold=4.7500000000000009 5.3500000000000005 2.8500000000000001 0.45000000000000007
decision_type=2 2 2 2
left_child=2 -2 -1 -4
right_child=1 -3 3 -5
leaf_value=-0.055645885007540342 0.04790869153362437 0.095099449103496908 -0.07658004775698353 -0.07861419171700558
leaf_weight=4.0586311891675022 7.000034570693968 6.9984455108642578 6.2462461739778501 3.6212454736232758
leaf_count=21 20 23 37 19
internal_value=0 0.0715014 -0.0710079 -0.0773266
internal_weight=0 13.9985 13.9261 9.86749
internal_count=120 43 77 56
is_linear=0
shrinkage=0.1


Tree=27
num_leaves=5
num_cat=0
split_feature=2 0 2 3
split_gain=15.2374 0.0576768 0.000845238 0.000545143
threshold=3.1500000000000004 5.0500000000000007 5.3500000000000005 1.3500000000000003
decision_type=2 2 2 2
left_child=1 -1 3 -2
right_child=2 -3 -4 -5
leaf_value=0.088711501269870499 -0.075906107668915979 0.074462839654470481 -0.075063467919630214 -0.07747085877918336
leaf_weight=6.0290025770664233 3.5276395678520185 5.3723331391811371 3.4275555014610282 6.0363742113113403
leaf_count=22 22 19 23 34
internal_value=0 0.0819975 -0.0764108 -0.0768937
internal_weight=0 11.4013 12.9916 9.56401
internal_count=120 41 79 56
is_linear=0
shrinkage=0.1


Tree=28
num_leaves=4
num_cat=0
split_feature=2 3 3
split_gain=4.9703 7.76224 0.103486
threshold=1.8 1.6500000000000001 1.3500000000000003
decision_type=2 2 2
left_child=-1 2 -2
right_child=1 -3 -4
leaf_value=-0.077052175492078948 0.078367194772564416 -0.056408483248244504 0.060873796720868428
leaf_weight=6.2011759132146862 7.1090113222599047 7.5612599402666083 6.4497617781162262
leaf_count=38 25 37 20
internal_value=0 0.0247734 0.0700458
internal_weight=0 21.12 13.5588
internal_count=120 82 45
is_linear=0
shrinkage=0.1


Tree=29
num_leaves=5
num_cat=0
split_feature=3 2 2 2
split_gain=12.2606 1.34399 0.00098494 9.70338e-07
threshold=1.6500000000000001 4.5500000000000007 3.1500000000000004 1.4500000000000002
decision_type=2 2 2 2
left_child=1 2 3 -1
right_child=-2 -3 -4 -5
leaf_value=-0.075172823601930783 0.079770509367430145 -0.006467576699317793 -0.077094492795833136 -0.075252184696437407
leaf_weight=3.1596170812845248 11.154286742210386 3.6868156343698493 5.0553138703107834 3.0068233385682106
leaf_count=21 37 13 29 20
internal_value=0 -0.05885 -0.0760598 -0.0752115
internal_weight=0 14.9086 11.2218 6.16644
internal_count=120 83 70 41
is_linear=0
shrinkage=0.1


end of trees

feature_importances:
Column_2=60
Column_3=35
Column_0=7
Column_1=6

parameters:
[boosting: gbdt]
[objective: multiclass]
[metric: multi_logloss]
[tree_learner: serial]
[device_type: cpu]
[data: ]
[valid: ]
[num_iterations: 10]
[learning_rate: 0.1]
[num_leaves: 31]
[num_threads: 0]
[deterministic: 0]
[force_col_wise: 0]
[force_row_wise: 0]
[histogram_pool_size: -1]
[max_depth: -1]
[min_data_in_leaf: 20]
[min_sum_hessian_in_leaf: 0.001]
[bagging_fraction: 1]
[pos_bagging_fraction: 1]
[neg_bagging_fraction: 1]
[bagging_freq: 0]
[bagging_seed: 400]
[feature_fraction: 1]
[feature_fraction_bynode: 1]
[feature_fraction_seed: 30056]
[extra_trees: 0]
[extra_seed: 12879]
[early_stopping_round: 0]
[first_metric_only: 0]
[max_delta_step: 0]
[lambda_l1: 0]
[lambda_l2: 0]
[linear_lambda: 0]
[min_gain_to_split: 0]
[drop_rate: 0.1]
[max_drop: 50]
[skip_drop: 0.5]
[xgboost_dart_mode: 0]
[uniform_drop: 0]
[drop_seed: 17869]
[top_rate: 0.2]
[other_rate: 0.1]
[min_data_per_group: 100]
[max_cat_threshold: 32]
[cat_l2: 10]
[cat_smooth: 10]
[max_cat_to_onehot: 4]
[top_k: 20]
[monotone_constraints: ]
[monotone_constraints_method: basic]
[monotone_penalty: 0]
[feature_contri: ]
[forcedsplits_filename: ]
[refit_decay_rate: 0.9]
[cegb_tradeoff: 1]
[cegb_penalty_split: 0]
[cegb_penalty_feature_lazy: ]
[cegb_penalty_feature_coupled: ]
[path_smooth: 0]
[interaction_constraints: ]
[verbosity: 1]
[saved_feature_importance_type: 0]
[linear_tree: 0]
[max_bin: 255]
[max_bin_by_feature: ]
[min_data_in_bin: 3]
[bin_construct_sample_cnt: 200000]
[data_random_seed: 175]
[is_enable_sparse: 1]
[enable_bundle: 1]
[use_missing: 1]
[zero_as_missing: 0]
[feature_pre_filter: 1]
[pre_partition: 0]
[two_round: 0]
[header: 0]
[label_column: ]
[weight_column: ]
[group_column: ]
[ignore_column: ]
[categorical_feature: ]
[forcedbins_filename: ]
[precise_float_parser: 0]
[objective_seed: 16083]
[num_class: 3]
[is_unbalance: 0]
[scale_pos_weight: 1]
[sigmoid: 1]
[boost_from_average: 1]
[reg_sqrt: 0]
[alpha: 0.9]
[fair_c: 1]
[poisson_max_delta_step: 0.7]
[tweedie_variance_power: 1.5]
[lambdarank_truncation_level: 30]
[lambdarank_norm: 1]
[label_gain: ]
[eval_at: ]
[multi_error_top_k: 1]
[auc_mu_weights: ]
[num_machines: 1]
[local_listen_port: 12400]
[time_out: 120]
[machine_list_filename: ]
[machines: ]
[gpu_platform_id: -1]
[gpu_device_id: -1]
[gpu_use_dp: 0]
[num_gpu: 1]

end of parameters

pandas_categorical:null
